digraph Tree {
node [shape=box, style="filled, rounded", color="black", fontname="helvetica"] ;
edge [fontname="helvetica"] ;
0 [label="Cr <= 57.5\ngini = 0.492\nsamples = 211\nvalue = [92.0, 119.0]\nclass = 1", fillcolor="#d2e9f9"] ;
1 [label="AGE <= 51.5\ngini = 0.473\nsamples = 94\nvalue = [58, 36]\nclass = 0", fillcolor="#f5cfb4"] ;
0 -> 1 [labeldistance=2.5, labelangle=45, headlabel="True"] ;
2 [label="HDL <= 0.95\ngini = 0.375\nsamples = 56\nvalue = [42, 14]\nclass = 0", fillcolor="#eeab7b"] ;
1 -> 2 ;
3 [label="Urea <= 3.95\ngini = 0.499\nsamples = 19\nvalue = [9, 10]\nclass = 1", fillcolor="#ebf5fc"] ;
2 -> 3 ;
4 [label="Cr <= 53.5\ngini = 0.32\nsamples = 10\nvalue = [8, 2]\nclass = 0", fillcolor="#eca06a"] ;
3 -> 4 ;
5 [label="gini = 0.0\nsamples = 7\nvalue = [7, 0]\nclass = 0", fillcolor="#e58139"] ;
4 -> 5 ;
6 [label="Chol <= 4.2\ngini = 0.444\nsamples = 3\nvalue = [1, 2]\nclass = 1", fillcolor="#9ccef2"] ;
4 -> 6 ;
7 [label="gini = 0.0\nsamples = 2\nvalue = [0, 2]\nclass = 1", fillcolor="#399de5"] ;
6 -> 7 ;
8 [label="gini = 0.0\nsamples = 1\nvalue = [1, 0]\nclass = 0", fillcolor="#e58139"] ;
6 -> 8 ;
9 [label="Class <= 1.5\ngini = 0.198\nsamples = 9\nvalue = [1, 8]\nclass = 1", fillcolor="#52a9e8"] ;
3 -> 9 ;
10 [label="gini = 0.0\nsamples = 8\nvalue = [0, 8]\nclass = 1", fillcolor="#399de5"] ;
9 -> 10 ;
11 [label="gini = 0.0\nsamples = 1\nvalue = [1, 0]\nclass = 0", fillcolor="#e58139"] ;
9 -> 11 ;
12 [label="TG <= 1.55\ngini = 0.193\nsamples = 37\nvalue = [33, 4]\nclass = 0", fillcolor="#e89051"] ;
2 -> 12 ;
13 [label="gini = 0.0\nsamples = 22\nvalue = [22, 0]\nclass = 0", fillcolor="#e58139"] ;
12 -> 13 ;
14 [label="LDL <= 2.55\ngini = 0.391\nsamples = 15\nvalue = [11, 4]\nclass = 0", fillcolor="#eeaf81"] ;
12 -> 14 ;
15 [label="gini = 0.0\nsamples = 6\nvalue = [6, 0]\nclass = 0", fillcolor="#e58139"] ;
14 -> 15 ;
16 [label="LDL <= 3.25\ngini = 0.494\nsamples = 9\nvalue = [5, 4]\nclass = 0", fillcolor="#fae6d7"] ;
14 -> 16 ;
17 [label="gini = 0.0\nsamples = 4\nvalue = [0, 4]\nclass = 1", fillcolor="#399de5"] ;
16 -> 17 ;
18 [label="gini = 0.0\nsamples = 5\nvalue = [5, 0]\nclass = 0", fillcolor="#e58139"] ;
16 -> 18 ;
19 [label="HDL <= 1.425\ngini = 0.488\nsamples = 38\nvalue = [16, 22]\nclass = 1", fillcolor="#c9e4f8"] ;
1 -> 19 ;
20 [label="Cr <= 25.5\ngini = 0.437\nsamples = 31\nvalue = [10, 21]\nclass = 1", fillcolor="#97ccf1"] ;
19 -> 20 ;
21 [label="gini = 0.0\nsamples = 3\nvalue = [3, 0]\nclass = 0", fillcolor="#e58139"] ;
20 -> 21 ;
22 [label="HbA1c <= 12.3\ngini = 0.375\nsamples = 28\nvalue = [7, 21]\nclass = 1", fillcolor="#7bbeee"] ;
20 -> 22 ;
23 [label="Cr <= 43.5\ngini = 0.311\nsamples = 26\nvalue = [5, 21]\nclass = 1", fillcolor="#68b4eb"] ;
22 -> 23 ;
24 [label="gini = 0.0\nsamples = 13\nvalue = [0, 13]\nclass = 1", fillcolor="#399de5"] ;
23 -> 24 ;
25 [label="LDL <= 3.95\ngini = 0.473\nsamples = 13\nvalue = [5, 8]\nclass = 1", fillcolor="#b5daf5"] ;
23 -> 25 ;
26 [label="Cr <= 45.0\ngini = 0.397\nsamples = 11\nvalue = [3, 8]\nclass = 1", fillcolor="#83c2ef"] ;
25 -> 26 ;
27 [label="gini = 0.0\nsamples = 2\nvalue = [2, 0]\nclass = 0", fillcolor="#e58139"] ;
26 -> 27 ;
28 [label="BMI <= 26.5\ngini = 0.198\nsamples = 9\nvalue = [1, 8]\nclass = 1", fillcolor="#52a9e8"] ;
26 -> 28 ;
29 [label="TG <= 2.65\ngini = 0.5\nsamples = 2\nvalue = [1, 1]\nclass = 0", fillcolor="#ffffff"] ;
28 -> 29 ;
30 [label="gini = 0.0\nsamples = 1\nvalue = [1, 0]\nclass = 0", fillcolor="#e58139"] ;
29 -> 30 ;
31 [label="gini = 0.0\nsamples = 1\nvalue = [0, 1]\nclass = 1", fillcolor="#399de5"] ;
29 -> 31 ;
32 [label="gini = 0.0\nsamples = 7\nvalue = [0, 7]\nclass = 1", fillcolor="#399de5"] ;
28 -> 32 ;
33 [label="gini = 0.0\nsamples = 2\nvalue = [2, 0]\nclass = 0", fillcolor="#e58139"] ;
25 -> 33 ;
34 [label="gini = 0.0\nsamples = 2\nvalue = [2, 0]\nclass = 0", fillcolor="#e58139"] ;
22 -> 34 ;
35 [label="Chol <= 3.55\ngini = 0.245\nsamples = 7\nvalue = [6, 1]\nclass = 0", fillcolor="#e9965a"] ;
19 -> 35 ;
36 [label="gini = 0.0\nsamples = 1\nvalue = [0, 1]\nclass = 1", fillcolor="#399de5"] ;
35 -> 36 ;
37 [label="gini = 0.0\nsamples = 6\nvalue = [6, 0]\nclass = 0", fillcolor="#e58139"] ;
35 -> 37 ;
38 [label="HbA1c <= 5.65\ngini = 0.412\nsamples = 117\nvalue = [34, 83]\nclass = 1", fillcolor="#8ac5f0"] ;
0 -> 38 [labeldistance=2.5, labelangle=-45, headlabel="False"] ;
39 [label="VLDL <= 0.65\ngini = 0.5\nsamples = 35\nvalue = [17, 18]\nclass = 1", fillcolor="#f4fafe"] ;
38 -> 39 ;
40 [label="AGE <= 29.5\ngini = 0.245\nsamples = 7\nvalue = [6, 1]\nclass = 0", fillcolor="#e9965a"] ;
39 -> 40 ;
41 [label="gini = 0.0\nsamples = 1\nvalue = [0, 1]\nclass = 1", fillcolor="#399de5"] ;
40 -> 41 ;
42 [label="gini = 0.0\nsamples = 6\nvalue = [6, 0]\nclass = 0", fillcolor="#e58139"] ;
40 -> 42 ;
43 [label="HbA1c <= 2.3\ngini = 0.477\nsamples = 28\nvalue = [11, 17]\nclass = 1", fillcolor="#b9dcf6"] ;
39 -> 43 ;
44 [label="gini = 0.0\nsamples = 2\nvalue = [2, 0]\nclass = 0", fillcolor="#e58139"] ;
43 -> 44 ;
45 [label="HDL <= 1.2\ngini = 0.453\nsamples = 26\nvalue = [9, 17]\nclass = 1", fillcolor="#a2d1f3"] ;
43 -> 45 ;
46 [label="Chol <= 6.4\ngini = 0.245\nsamples = 14\nvalue = [2, 12]\nclass = 1", fillcolor="#5aade9"] ;
45 -> 46 ;
47 [label="LDL <= 1.35\ngini = 0.142\nsamples = 13\nvalue = [1, 12]\nclass = 1", fillcolor="#49a5e7"] ;
46 -> 47 ;
48 [label="Urea <= 12.8\ngini = 0.5\nsamples = 2\nvalue = [1, 1]\nclass = 0", fillcolor="#ffffff"] ;
47 -> 48 ;
49 [label="gini = 0.0\nsamples = 1\nvalue = [1, 0]\nclass = 0", fillcolor="#e58139"] ;
48 -> 49 ;
50 [label="gini = 0.0\nsamples = 1\nvalue = [0, 1]\nclass = 1", fillcolor="#399de5"] ;
48 -> 50 ;
51 [label="gini = 0.0\nsamples = 11\nvalue = [0, 11]\nclass = 1", fillcolor="#399de5"] ;
47 -> 51 ;
52 [label="gini = 0.0\nsamples = 1\nvalue = [1, 0]\nclass = 0", fillcolor="#e58139"] ;
46 -> 52 ;
53 [label="BMI <= 22.5\ngini = 0.486\nsamples = 12\nvalue = [7, 5]\nclass = 0", fillcolor="#f8dbc6"] ;
45 -> 53 ;
54 [label="Chol <= 4.05\ngini = 0.469\nsamples = 8\nvalue = [3, 5]\nclass = 1", fillcolor="#b0d8f5"] ;
53 -> 54 ;
55 [label="gini = 0.0\nsamples = 4\nvalue = [0, 4]\nclass = 1", fillcolor="#399de5"] ;
54 -> 55 ;
56 [label="LDL <= 2.0\ngini = 0.375\nsamples = 4\nvalue = [3, 1]\nclass = 0", fillcolor="#eeab7b"] ;
54 -> 56 ;
57 [label="gini = 0.0\nsamples = 1\nvalue = [0, 1]\nclass = 1", fillcolor="#399de5"] ;
56 -> 57 ;
58 [label="gini = 0.0\nsamples = 3\nvalue = [3, 0]\nclass = 0", fillcolor="#e58139"] ;
56 -> 58 ;
59 [label="gini = 0.0\nsamples = 4\nvalue = [4, 0]\nclass = 0", fillcolor="#e58139"] ;
53 -> 59 ;
60 [label="HDL <= 0.5\ngini = 0.329\nsamples = 82\nvalue = [17, 65]\nclass = 1", fillcolor="#6db7ec"] ;
38 -> 60 ;
61 [label="gini = 0.0\nsamples = 3\nvalue = [3, 0]\nclass = 0", fillcolor="#e58139"] ;
60 -> 61 ;
62 [label="VLDL <= 0.95\ngini = 0.292\nsamples = 79\nvalue = [14, 65]\nclass = 1", fillcolor="#64b2eb"] ;
60 -> 62 ;
63 [label="LDL <= 3.35\ngini = 0.117\nsamples = 32\nvalue = [2, 30]\nclass = 1", fillcolor="#46a4e7"] ;
62 -> 63 ;
64 [label="gini = 0.0\nsamples = 25\nvalue = [0, 25]\nclass = 1", fillcolor="#399de5"] ;
63 -> 64 ;
65 [label="HDL <= 0.85\ngini = 0.408\nsamples = 7\nvalue = [2, 5]\nclass = 1", fillcolor="#88c4ef"] ;
63 -> 65 ;
66 [label="VLDL <= 0.85\ngini = 0.444\nsamples = 3\nvalue = [2, 1]\nclass = 0", fillcolor="#f2c09c"] ;
65 -> 66 ;
67 [label="gini = 0.0\nsamples = 2\nvalue = [2, 0]\nclass = 0", fillcolor="#e58139"] ;
66 -> 67 ;
68 [label="gini = 0.0\nsamples = 1\nvalue = [0, 1]\nclass = 1", fillcolor="#399de5"] ;
66 -> 68 ;
69 [label="gini = 0.0\nsamples = 4\nvalue = [0, 4]\nclass = 1", fillcolor="#399de5"] ;
65 -> 69 ;
70 [label="VLDL <= 1.95\ngini = 0.38\nsamples = 47\nvalue = [12.0, 35.0]\nclass = 1", fillcolor="#7dbfee"] ;
62 -> 70 ;
71 [label="LDL <= 2.85\ngini = 0.457\nsamples = 34\nvalue = [12, 22]\nclass = 1", fillcolor="#a5d2f3"] ;
70 -> 71 ;
72 [label="HbA1c <= 6.2\ngini = 0.495\nsamples = 20\nvalue = [11, 9]\nclass = 0", fillcolor="#fae8db"] ;
71 -> 72 ;
73 [label="gini = 0.0\nsamples = 3\nvalue = [0, 3]\nclass = 1", fillcolor="#399de5"] ;
72 -> 73 ;
74 [label="Urea <= 6.7\ngini = 0.457\nsamples = 17\nvalue = [11, 6]\nclass = 0", fillcolor="#f3c6a5"] ;
72 -> 74 ;
75 [label="gini = 0.0\nsamples = 7\nvalue = [7, 0]\nclass = 0", fillcolor="#e58139"] ;
74 -> 75 ;
76 [label="HbA1c <= 7.85\ngini = 0.48\nsamples = 10\nvalue = [4, 6]\nclass = 1", fillcolor="#bddef6"] ;
74 -> 76 ;
77 [label="gini = 0.0\nsamples = 3\nvalue = [0, 3]\nclass = 1", fillcolor="#399de5"] ;
76 -> 77 ;
78 [label="TG <= 2.8\ngini = 0.49\nsamples = 7\nvalue = [4, 3]\nclass = 0", fillcolor="#f8e0ce"] ;
76 -> 78 ;
79 [label="gini = 0.0\nsamples = 3\nvalue = [3, 0]\nclass = 0", fillcolor="#e58139"] ;
78 -> 79 ;
80 [label="BMI <= 36.0\ngini = 0.375\nsamples = 4\nvalue = [1, 3]\nclass = 1", fillcolor="#7bbeee"] ;
78 -> 80 ;
81 [label="gini = 0.0\nsamples = 3\nvalue = [0, 3]\nclass = 1", fillcolor="#399de5"] ;
80 -> 81 ;
82 [label="gini = 0.0\nsamples = 1\nvalue = [1, 0]\nclass = 0", fillcolor="#e58139"] ;
80 -> 82 ;
83 [label="Cr <= 60.5\ngini = 0.133\nsamples = 14\nvalue = [1, 13]\nclass = 1", fillcolor="#48a5e7"] ;
71 -> 83 ;
84 [label="gini = 0.0\nsamples = 1\nvalue = [1, 0]\nclass = 0", fillcolor="#e58139"] ;
83 -> 84 ;
85 [label="gini = 0.0\nsamples = 13\nvalue = [0, 13]\nclass = 1", fillcolor="#399de5"] ;
83 -> 85 ;
86 [label="gini = 0.0\nsamples = 13\nvalue = [0, 13]\nclass = 1", fillcolor="#399de5"] ;
70 -> 86 ;
}